{
"line_pt_pairs": [
[
[
-0.1395634546318214,
-0.2294611061958028,
-0.3238306286534068
],
[
0.2298080573422036,
0.6980462852914516,
-0.3812303227164549
]
],
[
[
-0.02667191185848322,
1.136873082628663,
-0.22067499545118124
],
[
0.8732001364359009,
-0.6488422614634533,
-0.25876707563126455
]
],
[
[
-0.7509978909158352,
-0.20371892972980588,
-0.2946799758219219
],
[
1.2485193676056028,
-0.16222159799764835,
-0.28023337296781103
]
],
[
[
0.8844845542155046,
-0.3422359853866636,
-0.6345319061475297
],
[
0.023403641135859243,
0.2866701989006011,
1.0575132092365598
]
],
[
[
0.16029058725395337,
0.8599008709461744,
-0.7053213423820182
],
[
0.2992793439676562,
-0.06862367352639509,
1.060613054989296
]
],
[
[
-0.4011349689998571,
-0.2826549190403705,
-0.6527620903841618
],
[
0.3059996581001234,
0.33845035237084675,
1.1119443614036055
]
]
],
"contact_pairs_coord": [
[
[
0,
1
],
[
0,
2
]
],
[
[
0,
2
],
[
0,
3
]
],
[
[
0,
1
],
[
1,
3
]
],
[
[
1,
2
],
[
1,
3
]
],
[
[
1,
2
],
[
0,
2
]
],
[
[
1,
2
],
[
2,
3
]
],
[
[
0,
2
],
[
2,
3
]
],
[
[
2,
3
],
[
1,
3
]
],
[
[
2,
3
],
[
0,
3
]
]
],
"contact_id_pairs": [
[0,
1],
[0,
4],
[1,
4],
[0,
5],
[0,
2],
[5,
2],
[3,
1],
[3,
2],
[1,
2],
[3,
5],
[3,
4],
[5,
4]
],
"coupler_pt_pairs": [
[
[
-0.12507538703736626,
-0.193080959523395,
-0.3260820492977389
],
[
-0.12538361080598281,
-0.19073513416242438,
-0.29015988428178147
]
],
[
[
-0.2603055834774085,
-0.1935352609600512,
-0.2911347016519094
],
[
-0.26092710646841366,
-0.1595046175642328,
-0.302863061092774
]
],
[
[
0.21872691198298289,
0.670221063546834,
-0.37950833189456346
],
[
0.1866848562339399,
0.6835720285218126,
-0.3699665368041828
]
],
[
[
0.22889395915949334,
0.6297255407441625,
-0.23149323974331293
],
[
0.19712288179535448,
0.613840036101954,
-0.2373452455905913
]
],
[
[
0.6348420663994909,
-0.1758420567577319,
-0.2486772470466272
],
[
0.6350836243911401,
-0.17495264416594042,
-0.284665474026688
]
],
[
[
0.6524351227629301,
-0.21075389867705474,
-0.24942197082694578
],
[
0.6833949037718253,
-0.1953664835324322,
-0.23938581056098165
]
],
[
[
0.699077366290082,
-0.17362453883199286,
-0.2842031163398901
],
[
0.6996829228215267,
-0.20726273596881445,
-0.2713921675173355
]
],
[
[
0.2371850370095262,
0.13053104878326793,
0.6374275225682589
],
[
0.26658681353956915,
0.14978116468597813,
0.6452351108654498
]
],
[
[
0.1661569086218012,
0.18240774065143195,
0.7769995370767349
],
[
0.16689110330931262,
0.21626561785528947,
0.7647887354021268
]
]
],
"nstatus": 0,
"opt_line_pos": [
[
-0.3718370103435609,
-0.36994876345338845,
-0.2916349875029682
],
[
-0.024707789658260478,
0.558932063909318,
-0.1990831705126402
],
[
-0.44811271984739287,
-0.3179381036526929,
-0.2596079110169084
],
[
0.46475683758855835,
-0.3260779354016491,
-0.2229664386583932
],
[
-0.03571044394484956,
0.5330545667303647,
-0.2905651886289051
],
[
-0.47182734253905645,
-0.2712786098787956,
-0.23346901388600957
]
],
"opt_line_orient": [
[
0.369371511974025,
0.9275073914872545,
-0.05739969406304816
],
[
0.449936024147192,
-0.8928576720460581,
-0.019046040090041648
],
[
0.999758629260719,
0.02074866586607874,
0.007223301427055412
],
[
-0.4305404565398227,
0.3144530921436324,
0.8460225576920448
],
[
0.06949437835685143,
-0.46426227223628475,
0.8829671986856571
],
[
0.3535673135499902,
0.3105526357056086,
0.8823532258938835
]
],
"opt_edges_coord": [
[
0,
1
],
[
1,
2
],
[
0,
2
],
[
2,
3
],
[
1,
3
],
[
0,
3
]
],
"opt_parameters": {
"length_deviation_ratio": 0.2,
"clamp_collision_dist": 0.024000000208616257,
"max_tangent": -1,
"clamp_gap": 0.016,
"collision_inds": [],
"shape_deviation": 0.2,
"bar_collision_distance": 0.07000000029802322,
"contact_inds": [
0,
1,
0,
4,
1,
4,
0,
5,
0,
2,
5,
2,
3,
1,
3,
2,
1,
2,
3,
5,
3,
4,
5,
4
],
"opt_weights": [
1.0,
10.0,
0.0
],
"clamp_t_bnd": 0.10000000149011612,
"pos_devi": 0.05000000074505806,
"orient_devi": 0.05745329335331917,
"time_out": 300,
"contactopt_trust_region_start": 0.10000000149011612,
"bar_available_lengths": [
1.0,
2.0
],
"opt_tol": 0.01,
"trust_region_lobnd": 1e-06,
"trust_region_upbnd": 1.0,
"contact_ignore_para_tol": 0.001,
"line_para_tol": 0.01,
"bigM": 1,
"pos_tol": 1e-06,
"duplicate_vertices_tol": 0.001,
"bar_contact_distance_tol": 0,
"bar_contact_distance": 0.018000000000000002,
"fixed_contact_pairs_coord": [
[
[
0,
1
],
[
0,
2
]
],
[
[
0,
2
],
[
0,
3
]
],
[
[
0,
1
],
[
1,
3
]
],
[
[
1,
2
],
[
1,
3
]
],
[
[
1,
2
],
[
0,
2
]
],
[
[
1,
2
],
[
2,
3
]
],
[
[
0,
2
],
[
2,
3
]
],
[
[
2,
3
],
[
1,
3
]
],
[
[
2,
3
],
[
0,
3
]
]
],
"clamp_extension_length": 0.03,
"debug_mode": 0,
"num_unsuccessful_step_to_expand_trust_region": 10,
"reciprocal": false
}
}